digraph Tree {
node [shape=box, style="filled, rounded", color="black", fontname="helvetica"] ;
edge [fontname="helvetica"] ;
0 [label=<PTR_frequency &le; 0.5<br/>gini = 0.5<br/>samples = 1934<br/>value = [951, 983]<br/>class = 1>, fillcolor="#f9fcfe"] ;
1 [label=<rr_name_entropy &le; 3.302<br/>gini = 0.308<br/>samples = 1011<br/>value = [819, 192]<br/>class = 0>, fillcolor="#eb9f67"] ;
0 -> 1 [labeldistance=2.5, labelangle=45, headlabel="True"] ;
2 [label=<ttl_mean &le; 61.5<br/>gini = 0.24<br/>samples = 933<br/>value = [803, 130]<br/>class = 0>, fillcolor="#e99559"] ;
1 -> 2 ;
3 [label=<subdomain_length &le; 4.5<br/>gini = 0.486<br/>samples = 272<br/>value = [159, 113]<br/>class = 0>, fillcolor="#f7dbc6"] ;
2 -> 3 ;
4 [label=<labels &le; 1.5<br/>gini = 0.153<br/>samples = 168<br/>value = [154, 14]<br/>class = 0>, fillcolor="#e78c4b"] ;
3 -> 4 ;
5 [label=<gini = 0.0<br/>samples = 11<br/>value = [0, 11]<br/>class = 1>, fillcolor="#399de5"] ;
4 -> 5 ;
6 [label=<gini = 0.037<br/>samples = 157<br/>value = [154, 3]<br/>class = 0>, fillcolor="#e6833d"] ;
4 -> 6 ;
7 [label=<gini = 0.092<br/>samples = 104<br/>value = [5, 99]<br/>class = 1>, fillcolor="#43a2e6"] ;
3 -> 7 ;
8 [label=<gini = 0.05<br/>samples = 661<br/>value = [644, 17]<br/>class = 0>, fillcolor="#e6843e"] ;
2 -> 8 ;
9 [label=<longest_word &le; 1.5<br/>gini = 0.326<br/>samples = 78<br/>value = [16, 62]<br/>class = 1>, fillcolor="#6cb6ec"] ;
1 -> 9 ;
10 [label=<gini = 0.0<br/>samples = 57<br/>value = [0, 57]<br/>class = 1>, fillcolor="#399de5"] ;
9 -> 10 ;
11 [label=<gini = 0.363<br/>samples = 21<br/>value = [16, 5]<br/>class = 0>, fillcolor="#eda877"] ;
9 -> 11 ;
12 [label=<longest_word &le; 1.5<br/>gini = 0.245<br/>samples = 923<br/>value = [132, 791]<br/>class = 1>, fillcolor="#5aade9"] ;
0 -> 12 [labeldistance=2.5, labelangle=-45, headlabel="False"] ;
13 [label=<gini = 0.008<br/>samples = 713<br/>value = [3, 710]<br/>class = 1>, fillcolor="#3a9de5"] ;
12 -> 13 ;
14 [label=<subdomain_length &le; 3.5<br/>gini = 0.474<br/>samples = 210<br/>value = [129, 81]<br/>class = 0>, fillcolor="#f5d0b5"] ;
12 -> 14 ;
15 [label=<len &le; 4.5<br/>gini = 0.226<br/>samples = 146<br/>value = [127, 19]<br/>class = 0>, fillcolor="#e99457"] ;
14 -> 15 ;
16 [label=<gini = 0.245<br/>samples = 14<br/>value = [2, 12]<br/>class = 1>, fillcolor="#5aade9"] ;
15 -> 16 ;
17 [label=<FQDN_count &le; 6.5<br/>gini = 0.1<br/>samples = 132<br/>value = [125, 7]<br/>class = 0>, fillcolor="#e68844"] ;
15 -> 17 ;
18 [label=<gini = 0.0<br/>samples = 7<br/>value = [0, 7]<br/>class = 1>, fillcolor="#399de5"] ;
17 -> 18 ;
19 [label=<gini = 0.0<br/>samples = 125<br/>value = [125, 0]<br/>class = 0>, fillcolor="#e58139"] ;
17 -> 19 ;
20 [label=<gini = 0.061<br/>samples = 64<br/>value = [2, 62]<br/>class = 1>, fillcolor="#3fa0e6"] ;
14 -> 20 ;
}
